-0.28332431064853,0.440906988270186,-0.341381351211676,0.0809036688723428,0.273518388189671,-0.11685183173714,0.31652370384253,-0.125001963267841,0.165255069478415,0.223916038835622,-0.137787472330782,0.236740616628195,-0.0158414201858572,-0.167180761264637,0.0491207864343641,-0.167856180823253,0.126231925866853,0.22960249344456,-0.26057648280063,-0.38094123292567,0.280833634848605,0.196742133254418,0.102371028273623,0.116710347218731,-0.398229498023916,-0.432859845881565,0.318752355569587,0.363543678221501,0.256208050092335,0.358968682452166,0.351490187575306,-0.382474170130791,0.0309915523466265,0.203612850418913,0.276225522096025,0.338249434318408,0.0729671892745758,0.381094569067301,0.382041426600242,-0.0776553350586449,-0.311417223084404,-0.236936650092031,-0.153161564640935,-0.106099087129695,0.05713335438916,-0.322486645120113,0.19546287279164,-0.124500745339728,-0.168469591605447,0.128028813514054,-0.253178022303477,0.277597973870152,-0.267135384623144,-0.155482931819172,-0.248358225584323,0.0292879089265866,-0.350749510870785,-0.214503309214486,0.539622117548366,0.324736410376264,0.231941205068195,-0.0846555718855733,-0.0401417038353106,-0.0596253824594339,0.0755314559485413,-0.375203114595089,0.510147507480538,0.269081914490076,-0.361496530822995,-0.535516135826263,-0.266073708750282,0.531990477503533,-0.599535841061041,-0.005024341380763,0.182560821710297,-0.145448269236874,-0.594311831458829,0.26714279766186,0.324904035605114,-0.901264256317804,-0.054967173501933,-0.243091911876739,
